digraph Tree {
node [shape=box, style="filled, rounded", color="black", fontname=helvetica] ;
edge [fontname=helvetica] ;
0 [label="sum_click <= 458.5\ngini = 0.499\nsamples = 19819\nvalue = [9566, 10253]\nclass = Success", fillcolor="#f2f8fd"] ;
1 [label="sum_click <= 212.5\ngini = 0.297\nsamples = 7261\nvalue = [5946, 1315]\nclass = Fail", fillcolor="#eb9d65"] ;
0 -> 1 [labeldistance=2.5, labelangle=45, headlabel="True"] ;
2 [label="code_module_BBB <= 0.5\ngini = 0.13\nsamples = 4250\nvalue = [3953, 297]\nclass = Fail", fillcolor="#e78a48"] ;
1 -> 2 ;
3 [label="code_module_GGG <= 0.5\ngini = 0.05\nsamples = 2857\nvalue = [2783, 74]\nclass = Fail", fillcolor="#e6843e"] ;
2 -> 3 ;
4 [label="code_module_AAA <= 0.5\ngini = 0.026\nsamples = 2432\nvalue = [2400, 32]\nclass = Fail", fillcolor="#e5833c"] ;
3 -> 4 ;
5 [label="sum_click <= 174.5\ngini = 0.019\nsamples = 2391\nvalue = [2368, 23]\nclass = Fail", fillcolor="#e5823b"] ;
4 -> 5 ;
6 [label="gini = 0.011\nsamples = 2039\nvalue = [2028, 11]\nclass = Fail", fillcolor="#e5823a"] ;
5 -> 6 ;
7 [label="gini = 0.066\nsamples = 352\nvalue = [340, 12]\nclass = Fail", fillcolor="#e68540"] ;
5 -> 7 ;
8 [label="imd_band_60-70% <= 0.5\ngini = 0.343\nsamples = 41\nvalue = [32, 9]\nclass = Fail", fillcolor="#eca471"] ;
4 -> 8 ;
9 [label="gini = 0.295\nsamples = 39\nvalue = [32, 7]\nclass = Fail", fillcolor="#eb9d64"] ;
8 -> 9 ;
10 [label="gini = 0.0\nsamples = 2\nvalue = [0, 2]\nclass = Success", fillcolor="#399de5"] ;
8 -> 10 ;
11 [label="sum_click <= 151.5\ngini = 0.178\nsamples = 425\nvalue = [383, 42]\nclass = Fail", fillcolor="#e88f4f"] ;
3 -> 11 ;
12 [label="sum_click <= 85.5\ngini = 0.075\nsamples = 334\nvalue = [321, 13]\nclass = Fail", fillcolor="#e68641"] ;
11 -> 12 ;
13 [label="gini = 0.008\nsamples = 242\nvalue = [241, 1]\nclass = Fail", fillcolor="#e5823a"] ;
12 -> 13 ;
14 [label="gini = 0.227\nsamples = 92\nvalue = [80, 12]\nclass = Fail", fillcolor="#e99457"] ;
12 -> 14 ;
15 [label="region_South West Region <= 0.5\ngini = 0.434\nsamples = 91\nvalue = [62, 29]\nclass = Fail", fillcolor="#f1bc96"] ;
11 -> 15 ;
16 [label="gini = 0.369\nsamples = 78\nvalue = [59, 19]\nclass = Fail", fillcolor="#edaa79"] ;
15 -> 16 ;
17 [label="gini = 0.355\nsamples = 13\nvalue = [3, 10]\nclass = Success", fillcolor="#74baed"] ;
15 -> 17 ;
18 [label="sum_click <= 130.5\ngini = 0.269\nsamples = 1393\nvalue = [1170, 223]\nclass = Fail", fillcolor="#ea995f"] ;
2 -> 18 ;
19 [label="sum_click <= 60.5\ngini = 0.138\nsamples = 981\nvalue = [908, 73]\nclass = Fail", fillcolor="#e78b49"] ;
18 -> 19 ;
20 [label="sum_click <= 20.5\ngini = 0.039\nsamples = 546\nvalue = [535, 11]\nclass = Fail", fillcolor="#e6843d"] ;
19 -> 20 ;
21 [label="gini = 0.008\nsamples = 251\nvalue = [250, 1]\nclass = Fail", fillcolor="#e5823a"] ;
20 -> 21 ;
22 [label="gini = 0.065\nsamples = 295\nvalue = [285, 10]\nclass = Fail", fillcolor="#e68540"] ;
20 -> 22 ;
23 [label="highest_education_A Level or Equivalent <= 0.5\ngini = 0.244\nsamples = 435\nvalue = [373, 62]\nclass = Fail", fillcolor="#e9965a"] ;
19 -> 23 ;
24 [label="gini = 0.182\nsamples = 276\nvalue = [248, 28]\nclass = Fail", fillcolor="#e88f4f"] ;
23 -> 24 ;
25 [label="gini = 0.336\nsamples = 159\nvalue = [125, 34]\nclass = Fail", fillcolor="#eca36f"] ;
23 -> 25 ;
26 [label="highest_education_Lower Than A Level <= 0.5\ngini = 0.463\nsamples = 412\nvalue = [262, 150]\nclass = Fail", fillcolor="#f4c9aa"] ;
18 -> 26 ;
27 [label="region_South East Region <= 0.5\ngini = 0.498\nsamples = 206\nvalue = [110, 96]\nclass = Fail", fillcolor="#fcefe6"] ;
26 -> 27 ;
28 [label="gini = 0.493\nsamples = 195\nvalue = [109, 86]\nclass = Fail", fillcolor="#fae4d5"] ;
27 -> 28 ;
29 [label="gini = 0.165\nsamples = 11\nvalue = [1, 10]\nclass = Success", fillcolor="#4da7e8"] ;
27 -> 29 ;
30 [label="code_presentation_2013J <= 0.5\ngini = 0.387\nsamples = 206\nvalue = [152, 54]\nclass = Fail", fillcolor="#eeae7f"] ;
26 -> 30 ;
31 [label="gini = 0.336\nsamples = 136\nvalue = [107, 29]\nclass = Fail", fillcolor="#eca36f"] ;
30 -> 31 ;
32 [label="gini = 0.459\nsamples = 70\nvalue = [45, 25]\nclass = Fail", fillcolor="#f3c7a7"] ;
30 -> 32 ;
33 [label="code_module_BBB <= 0.5\ngini = 0.448\nsamples = 3011\nvalue = [1993, 1018]\nclass = Fail", fillcolor="#f2c19e"] ;
1 -> 33 ;
34 [label="code_module_GGG <= 0.5\ngini = 0.367\nsamples = 2035\nvalue = [1542, 493]\nclass = Fail", fillcolor="#eda978"] ;
33 -> 34 ;
35 [label="code_module_FFF <= 0.5\ngini = 0.236\nsamples = 1636\nvalue = [1412, 224]\nclass = Fail", fillcolor="#e99558"] ;
34 -> 35 ;
36 [label="highest_education_Lower Than A Level <= 0.5\ngini = 0.294\nsamples = 1248\nvalue = [1025, 223]\nclass = Fail", fillcolor="#eb9c64"] ;
35 -> 36 ;
37 [label="gini = 0.366\nsamples = 817\nvalue = [620, 197]\nclass = Fail", fillcolor="#eda978"] ;
36 -> 37 ;
38 [label="gini = 0.113\nsamples = 431\nvalue = [405, 26]\nclass = Fail", fillcolor="#e78946"] ;
36 -> 38 ;
39 [label="sum_click <= 224.5\ngini = 0.005\nsamples = 388\nvalue = [387, 1]\nclass = Fail", fillcolor="#e5813a"] ;
35 -> 39 ;
40 [label="gini = 0.08\nsamples = 24\nvalue = [23, 1]\nclass = Fail", fillcolor="#e68642"] ;
39 -> 40 ;
41 [label="gini = 0.0\nsamples = 364\nvalue = [364, 0]\nclass = Fail", fillcolor="#e58139"] ;
39 -> 41 ;
42 [label="sum_click <= 321.5\ngini = 0.439\nsamples = 399\nvalue = [130, 269]\nclass = Success", fillcolor="#99ccf2"] ;
34 -> 42 ;
43 [label="sum_click <= 315.5\ngini = 0.492\nsamples = 165\nvalue = [72, 93]\nclass = Success", fillcolor="#d2e9f9"] ;
42 -> 43 ;
44 [label="gini = 0.484\nsamples = 156\nvalue = [64, 92]\nclass = Success", fillcolor="#c3e1f7"] ;
43 -> 44 ;
45 [label="gini = 0.198\nsamples = 9\nvalue = [8, 1]\nclass = Fail", fillcolor="#e89152"] ;
43 -> 45 ;
46 [label="age_band_0-35 <= 0.5\ngini = 0.373\nsamples = 234\nvalue = [58, 176]\nclass = Success", fillcolor="#7abdee"] ;
42 -> 46 ;
47 [label="gini = 0.46\nsamples = 67\nvalue = [24, 43]\nclass = Success", fillcolor="#a8d4f4"] ;
46 -> 47 ;
48 [label="gini = 0.324\nsamples = 167\nvalue = [34, 133]\nclass = Success", fillcolor="#6cb6ec"] ;
46 -> 48 ;
49 [label="highest_education_Lower Than A Level <= 0.5\ngini = 0.497\nsamples = 976\nvalue = [451, 525]\nclass = Success", fillcolor="#e3f1fb"] ;
33 -> 49 ;
50 [label="sum_click <= 361.5\ngini = 0.475\nsamples = 558\nvalue = [217, 341]\nclass = Success", fillcolor="#b7dbf6"] ;
49 -> 50 ;
51 [label="studied_credits <= 105.0\ngini = 0.495\nsamples = 365\nvalue = [164, 201]\nclass = Success", fillcolor="#dbedfa"] ;
50 -> 51 ;
52 [label="gini = 0.478\nsamples = 263\nvalue = [104, 159]\nclass = Success", fillcolor="#bbddf6"] ;
51 -> 52 ;
53 [label="gini = 0.484\nsamples = 102\nvalue = [60, 42]\nclass = Fail", fillcolor="#f7d9c4"] ;
51 -> 53 ;
54 [label="code_presentation_2014B <= 0.5\ngini = 0.398\nsamples = 193\nvalue = [53, 140]\nclass = Success", fillcolor="#84c2ef"] ;
50 -> 54 ;
55 [label="gini = 0.434\nsamples = 154\nvalue = [49, 105]\nclass = Success", fillcolor="#95cbf1"] ;
54 -> 55 ;
56 [label="gini = 0.184\nsamples = 39\nvalue = [4, 35]\nclass = Success", fillcolor="#50a8e8"] ;
54 -> 56 ;
57 [label="code_presentation_2013B <= 0.5\ngini = 0.493\nsamples = 418\nvalue = [234, 184]\nclass = Fail", fillcolor="#f9e4d5"] ;
49 -> 57 ;
58 [label="code_presentation_2014J <= 0.5\ngini = 0.498\nsamples = 329\nvalue = [174, 155]\nclass = Fail", fillcolor="#fcf1e9"] ;
57 -> 58 ;
59 [label="gini = 0.499\nsamples = 231\nvalue = [110, 121]\nclass = Success", fillcolor="#edf6fd"] ;
58 -> 59 ;
60 [label="gini = 0.453\nsamples = 98\nvalue = [64, 34]\nclass = Fail", fillcolor="#f3c4a2"] ;
58 -> 60 ;
61 [label="sum_click <= 417.5\ngini = 0.439\nsamples = 89\nvalue = [60, 29]\nclass = Fail", fillcolor="#f2be99"] ;
57 -> 61 ;
62 [label="gini = 0.389\nsamples = 72\nvalue = [53, 19]\nclass = Fail", fillcolor="#eeae80"] ;
61 -> 62 ;
63 [label="gini = 0.484\nsamples = 17\nvalue = [7, 10]\nclass = Success", fillcolor="#c4e2f7"] ;
61 -> 63 ;
64 [label="sum_click <= 1165.5\ngini = 0.41\nsamples = 12558\nvalue = [3620, 8938]\nclass = Success", fillcolor="#89c5f0"] ;
0 -> 64 [labeldistance=2.5, labelangle=-45, headlabel="False"] ;
65 [label="code_module_FFF <= 0.5\ngini = 0.491\nsamples = 5091\nvalue = [2213, 2878]\nclass = Success", fillcolor="#d1e8f9"] ;
64 -> 65 ;
66 [label="code_module_GGG <= 0.5\ngini = 0.462\nsamples = 4431\nvalue = [1603, 2828]\nclass = Success", fillcolor="#a9d5f4"] ;
65 -> 66 ;
67 [label="code_module_BBB <= 0.5\ngini = 0.483\nsamples = 3756\nvalue = [1534, 2222]\nclass = Success", fillcolor="#c2e1f7"] ;
66 -> 67 ;
68 [label="sum_click <= 802.5\ngini = 0.5\nsamples = 2455\nvalue = [1223, 1232]\nclass = Success", fillcolor="#fefeff"] ;
67 -> 68 ;
69 [label="gini = 0.486\nsamples = 1369\nvalue = [798, 571]\nclass = Fail", fillcolor="#f8dbc7"] ;
68 -> 69 ;
70 [label="gini = 0.476\nsamples = 1086\nvalue = [425, 661]\nclass = Success", fillcolor="#b8dcf6"] ;
68 -> 70 ;
71 [label="highest_education_Lower Than A Level <= 0.5\ngini = 0.364\nsamples = 1301\nvalue = [311, 990]\nclass = Success", fillcolor="#77bced"] ;
67 -> 71 ;
72 [label="gini = 0.307\nsamples = 804\nvalue = [152, 652]\nclass = Success", fillcolor="#67b4eb"] ;
71 -> 72 ;
73 [label="gini = 0.435\nsamples = 497\nvalue = [159, 338]\nclass = Success", fillcolor="#96cbf1"] ;
71 -> 73 ;
74 [label="sum_click <= 669.0\ngini = 0.184\nsamples = 675\nvalue = [69, 606]\nclass = Success", fillcolor="#50a8e8"] ;
66 -> 74 ;
75 [label="highest_education_No Formal quals <= 0.5\ngini = 0.244\nsamples = 324\nvalue = [46, 278]\nclass = Success", fillcolor="#5aade9"] ;
74 -> 75 ;
76 [label="gini = 0.233\nsamples = 319\nvalue = [43, 276]\nclass = Success", fillcolor="#58ace9"] ;
75 -> 76 ;
77 [label="gini = 0.48\nsamples = 5\nvalue = [3, 2]\nclass = Fail", fillcolor="#f6d5bd"] ;
75 -> 77 ;
78 [label="studied_credits <= 75.0\ngini = 0.122\nsamples = 351\nvalue = [23, 328]\nclass = Success", fillcolor="#47a4e7"] ;
74 -> 78 ;
79 [label="gini = 0.106\nsamples = 338\nvalue = [19, 319]\nclass = Success", fillcolor="#45a3e7"] ;
78 -> 79 ;
80 [label="gini = 0.426\nsamples = 13\nvalue = [4, 9]\nclass = Success", fillcolor="#91c9f1"] ;
78 -> 80 ;
81 [label="sum_click <= 935.5\ngini = 0.14\nsamples = 660\nvalue = [610, 50]\nclass = Fail", fillcolor="#e78b49"] ;
65 -> 81 ;
82 [label="region_South Region <= 0.5\ngini = 0.036\nsamples = 487\nvalue = [478, 9]\nclass = Fail", fillcolor="#e5833d"] ;
81 -> 82 ;
83 [label="studied_credits <= 195.0\ngini = 0.022\nsamples = 440\nvalue = [435, 5]\nclass = Fail", fillcolor="#e5823b"] ;
82 -> 83 ;
84 [label="gini = 0.018\nsamples = 431\nvalue = [427, 4]\nclass = Fail", fillcolor="#e5823b"] ;
83 -> 84 ;
85 [label="gini = 0.198\nsamples = 9\nvalue = [8, 1]\nclass = Fail", fillcolor="#e89152"] ;
83 -> 85 ;
86 [label="sum_click <= 851.5\ngini = 0.156\nsamples = 47\nvalue = [43, 4]\nclass = Fail", fillcolor="#e78d4b"] ;
82 -> 86 ;
87 [label="gini = 0.0\nsamples = 37\nvalue = [37, 0]\nclass = Fail", fillcolor="#e58139"] ;
86 -> 87 ;
88 [label="gini = 0.48\nsamples = 10\nvalue = [6, 4]\nclass = Fail", fillcolor="#f6d5bd"] ;
86 -> 88 ;
89 [label="highest_education_A Level or Equivalent <= 0.5\ngini = 0.362\nsamples = 173\nvalue = [132, 41]\nclass = Fail", fillcolor="#eda877"] ;
81 -> 89 ;
90 [label="code_presentation_2014J <= 0.5\ngini = 0.243\nsamples = 99\nvalue = [85, 14]\nclass = Fail", fillcolor="#e9965a"] ;
89 -> 90 ;
91 [label="gini = 0.123\nsamples = 61\nvalue = [57, 4]\nclass = Fail", fillcolor="#e78a47"] ;
90 -> 91 ;
92 [label="gini = 0.388\nsamples = 38\nvalue = [28, 10]\nclass = Fail", fillcolor="#eeae80"] ;
90 -> 92 ;
93 [label="imd_band_90-100% <= 0.5\ngini = 0.463\nsamples = 74\nvalue = [47, 27]\nclass = Fail", fillcolor="#f4c9ab"] ;
89 -> 93 ;
94 [label="gini = 0.485\nsamples = 63\nvalue = [37, 26]\nclass = Fail", fillcolor="#f7dac4"] ;
93 -> 94 ;
95 [label="gini = 0.165\nsamples = 11\nvalue = [10, 1]\nclass = Fail", fillcolor="#e88e4d"] ;
93 -> 95 ;
96 [label="sum_click <= 2156.5\ngini = 0.306\nsamples = 7467\nvalue = [1407, 6060]\nclass = Success", fillcolor="#67b4eb"] ;
64 -> 96 ;
97 [label="code_module_FFF <= 0.5\ngini = 0.391\nsamples = 3396\nvalue = [906, 2490]\nclass = Success", fillcolor="#81c1ee"] ;
96 -> 97 ;
98 [label="code_module_CCC <= 0.5\ngini = 0.315\nsamples = 2561\nvalue = [501, 2060]\nclass = Success", fillcolor="#69b5eb"] ;
97 -> 98 ;
99 [label="code_module_DDD <= 0.5\ngini = 0.275\nsamples = 2083\nvalue = [343, 1740]\nclass = Success", fillcolor="#60b0ea"] ;
98 -> 99 ;
100 [label="gini = 0.213\nsamples = 1362\nvalue = [165, 1197]\nclass = Success", fillcolor="#54abe9"] ;
99 -> 100 ;
101 [label="gini = 0.372\nsamples = 721\nvalue = [178, 543]\nclass = Success", fillcolor="#7abdee"] ;
99 -> 101 ;
102 [label="highest_education_Lower Than A Level <= 0.5\ngini = 0.443\nsamples = 478\nvalue = [158, 320]\nclass = Success", fillcolor="#9bcdf2"] ;
98 -> 102 ;
103 [label="gini = 0.398\nsamples = 368\nvalue = [101, 267]\nclass = Success", fillcolor="#84c2ef"] ;
102 -> 103 ;
104 [label="gini = 0.499\nsamples = 110\nvalue = [57, 53]\nclass = Fail", fillcolor="#fdf6f1"] ;
102 -> 104 ;
105 [label="highest_education_Lower Than A Level <= 0.5\ngini = 0.5\nsamples = 835\nvalue = [405, 430]\nclass = Success", fillcolor="#f3f9fd"] ;
97 -> 105 ;
106 [label="age_band_0-35 <= 0.5\ngini = 0.482\nsamples = 527\nvalue = [213, 314]\nclass = Success", fillcolor="#bfdff7"] ;
105 -> 106 ;
107 [label="gini = 0.473\nsamples = 91\nvalue = [56, 35]\nclass = Fail", fillcolor="#f5d0b5"] ;
106 -> 107 ;
108 [label="gini = 0.461\nsamples = 436\nvalue = [157, 279]\nclass = Success", fillcolor="#a8d4f4"] ;
106 -> 108 ;
109 [label="sum_click <= 2136.0\ngini = 0.47\nsamples = 308\nvalue = [192, 116]\nclass = Fail", fillcolor="#f5cdb1"] ;
105 -> 109 ;
110 [label="gini = 0.463\nsamples = 300\nvalue = [191, 109]\nclass = Fail", fillcolor="#f4c9aa"] ;
109 -> 110 ;
111 [label="gini = 0.219\nsamples = 8\nvalue = [1, 7]\nclass = Success", fillcolor="#55abe9"] ;
109 -> 111 ;
112 [label="sum_click <= 3855.0\ngini = 0.216\nsamples = 4071\nvalue = [501, 3570]\nclass = Success", fillcolor="#55abe9"] ;
96 -> 112 ;
113 [label="code_module_CCC <= 0.5\ngini = 0.269\nsamples = 2421\nvalue = [388, 2033]\nclass = Success", fillcolor="#5fb0ea"] ;
112 -> 113 ;
114 [label="code_presentation_2013B <= 0.5\ngini = 0.244\nsamples = 2098\nvalue = [299, 1799]\nclass = Success", fillcolor="#5aade9"] ;
113 -> 114 ;
115 [label="gini = 0.211\nsamples = 1692\nvalue = [203, 1489]\nclass = Success", fillcolor="#54aae9"] ;
114 -> 115 ;
116 [label="gini = 0.361\nsamples = 406\nvalue = [96, 310]\nclass = Success", fillcolor="#76bbed"] ;
114 -> 116 ;
117 [label="studied_credits <= 127.5\ngini = 0.399\nsamples = 323\nvalue = [89, 234]\nclass = Success", fillcolor="#84c2ef"] ;
113 -> 117 ;
118 [label="gini = 0.383\nsamples = 306\nvalue = [79, 227]\nclass = Success", fillcolor="#7ebfee"] ;
117 -> 118 ;
119 [label="gini = 0.484\nsamples = 17\nvalue = [10, 7]\nclass = Fail", fillcolor="#f7d9c4"] ;
117 -> 119 ;
120 [label="studied_credits <= 117.5\ngini = 0.128\nsamples = 1650\nvalue = [113, 1537]\nclass = Success", fillcolor="#48a4e7"] ;
112 -> 120 ;
121 [label="code_module_CCC <= 0.5\ngini = 0.102\nsamples = 1282\nvalue = [69, 1213]\nclass = Success", fillcolor="#44a3e6"] ;
120 -> 121 ;
122 [label="gini = 0.083\nsamples = 1124\nvalue = [49, 1075]\nclass = Success", fillcolor="#42a1e6"] ;
121 -> 122 ;
123 [label="gini = 0.221\nsamples = 158\nvalue = [20, 138]\nclass = Success", fillcolor="#56abe9"] ;
121 -> 123 ;
124 [label="code_module_DDD <= 0.5\ngini = 0.211\nsamples = 368\nvalue = [44, 324]\nclass = Success", fillcolor="#54aae9"] ;
120 -> 124 ;
125 [label="gini = 0.192\nsamples = 344\nvalue = [37, 307]\nclass = Success", fillcolor="#51a9e8"] ;
124 -> 125 ;
126 [label="gini = 0.413\nsamples = 24\nvalue = [7, 17]\nclass = Success", fillcolor="#8bc5f0"] ;
124 -> 126 ;
}